SVM-light Version V6.01
2 # kernel type
3 # kernel parameter -d 
6.25 # kernel parameter -g 
1 # kernel parameter -s 
1 # kernel parameter -r 
empty# kernel parameter -u 
3 # highest feature index 
3806 # number of training documents 
75 # number of support vectors plus 1 
-0.40844641 # threshold b, each following line is a SV (starting with alpha*y)
-10.217377620164070251007615297567 1:0.50150603 2:0.014285714 3:0.89307231 #
12.5 1:0.2483108 2:0.06666667 3:0.97297299 #
-12.5 1:0.80275232 2:0.055555556 3:0.91284406 #
12.5 1:0.19078541 2:0.050000001 3:0.99350649 #
-12.5 1:0.16529894 2:0.052631579 3:0.99218446 #
12.5 1:0.90268457 2:0.039999999 3:0.91275167 #
-12.5 1:0.99861109 2:0.2 3:0.99583334 #
-12.5 1:0.55913979 2:0.047619049 3:0.94086021 #
1.2077734952000678259054211594048 1:0.15879017 2:0.083333336 3:0.99648935 #
-12.5 1:0.50096714 2:0.018518519 3:0.89361703 #
-12.5 1:0.97671568 2:0.027027028 3:0.95343137 #
-12.5 1:0.29980275 2:0.03125 3:0.96745563 #
12.5 1:0.95079362 2:0.032258064 3:0.94920635 #
12.5 1:0.38894629 2:0.0046948357 3:0.88946283 #
-12.5 1:0.38999999 2:0.034482758 3:0.92500001 #
10.262012994835259860337828285992 1:0.64094317 2:0.018518519 3:0.94105035 #
12.5 1:0.2226087 2:0.0625 3:0.97043478 #
12.5 1:0.50850338 2:0.027027028 3:0.93537414 #
-12.5 1:0.3539823 2:0.039999999 3:0.94247788 #
-12.5 1:0.94394618 2:0.032258064 3:0.92825115 #
-12.5 1:0.10417893 2:0.052631579 3:0.98822838 #
9.2256933740993272152763893245719 1:0.3244898 2:0.034482758 3:0.97959185 #
-12.5 1:0.92371136 2:0.012987013 3:0.94639176 #
-12.5 1:0.31936127 2:0.039999999 3:0.94810379 #
12.5 1:0.21181773 2:0.052631579 3:0.98998499 #
12.5 1:0.95238096 2:0.034482758 3:0.95238096 #
12.5 1:0.66334438 2:0.01923077 3:0.94130677 #
-12.5 1:0.92852235 2:0.012987013 3:0.94639176 #
-12.5 1:0.53308481 2:0.125 3:0.99161232 #
10.544080521321081533869801205583 1:0.53417265 2:0.030303031 3:0.93884891 #
12.5 1:0.53417265 2:0.030303031 3:0.93884891 #
11.89516280208943221907702536555 1:0.22087379 2:0.090909094 3:0.97087377 #
7.426242810402281513404432189418 1:0.87111109 2:0.07692308 3:0.93777776 #
12.5 1:0.85344827 2:0.06666667 3:0.93103451 #
12.5 1:0.96564883 2:0.052631579 3:0.96183205 #
12.5 1:0.64005321 2:0.001996008 3:0.66600132 #
-12.5 1:0.68674701 2:0.012658228 3:0.87951809 #
12.5 1:0.60908085 2:0.017857144 3:0.93687707 #
-12.5 1:0.64596719 2:0.0060975607 3:0.882227 #
-3.1544787440480224205430204165168 1:0.7379576 2:0.016666668 3:0.88246626 #
-12.5 1:0.47239915 2:0.012048192 3:0.91082805 #
12.5 1:0.4352518 2:0.027027028 3:0.93165469 #
12.5 1:0.67604047 2:0.015625 3:0.92688411 #
-12.5 1:0.7674731 2:0.01754386 3:0.96102148 #
12.5 1:0.68592352 2:0.014492754 3:0.94304311 #
-7.5221040832751970839353816700168 1:0.84150511 2:0.012658228 3:0.90877992 #
12.5 1:0.58948547 2:0.016393442 3:0.93064874 #
12.5 1:0.58471763 2:0.01754386 3:0.93576968 #
-12.5 1:0.65725809 2:0.012987013 3:0.89516127 #
-12.5 1:0.69305021 2:0.023809524 3:0.91698843 #
-6.0458256104573271372260023781564 1:0.088552915 2:0.015873017 3:0.98617709 #
-12.5 1:0.31773666 2:0.016949153 3:0.93471164 #
-12.5 1:0.91444218 2:0.010989011 3:0.93702942 #
-12.5 1:0.35546875 2:0.027777778 3:0.92773438 #
-12.5 1:0.47111914 2:0.016129032 3:0.9431408 #
0.71375689048844159767526207360788 1:0.98047191 2:0.055555556 3:0.98454028 #
0.66506316950872224058599613272236 1:0.99851191 2:1 3:0.99702382 #
12.5 1:0.45683452 2:0.028571429 3:0.93525177 #
12.5 1:0.3723197 2:0.050000001 3:0.9590643 #
12.5 1:0.95259595 2:0.06666667 3:0.96388263 #
-12.5 1:0.84115523 2:0.011235955 3:0.91877258 #
12.5 1:0.43275154 2:0.014492754 3:0.96406573 #
12.5 1:0.88 2:0.07692308 3:0.93777776 #
12.5 1:0.50510204 2:0.024390243 3:0.9285714 #
12.5 1:0.67449665 2:0.03846154 3:0.90939599 #
-12.5 1:0.49917355 2:0.022222223 3:0.92396694 #
-12.5 1:0.55005461 2:0.0047846888 3:0.92355299 #
12.5 1:0.96103895 2:0.071428575 3:0.96103895 #
-12.5 1:0.82274246 2:0.012345679 3:0.90858418 #
12.5 1:0.47846889 2:0.03846154 3:0.93540668 #
-12.5 1:0.41114458 2:0.01923077 3:0.92018074 #
-12.5 1:0.52620965 2:0.021739131 3:0.90524191 #
12.5 1:0.61409396 2:0.016666668 3:0.93176734 #
-12.5 1:0.52601159 2:0.01923077 3:0.89788055 #
